BetaML = ["BetaMLGenericImputer", "RandomForestRegressor", "RandomForestClassifier", "PerceptronClassifier", "DecisionTreeRegressor", "BetaMLGMMImputer", "PegasosClassifier", "KMedoids", "BetaMLGMMRegressor", "KMeans", "DecisionTreeClassifier", "GMMClusterer", "MissingImputator", "BetaMLMeanImputer", "BetaMLRFImputer", "KernelPerceptronClassifier"]
NearestNeighborModels = ["KNNClassifier", "MultitargetKNNClassifier", "MultitargetKNNRegressor", "KNNRegressor"]
OutlierDetectionNeighbors = ["ABODDetector", "DNNDetector", "LOFDetector", "KNNDetector", "COFDetector"]
PartialLeastSquaresRegressor = ["KPLSRegressor", "PLSRegressor"]
MLJLinearModels = ["QuantileRegressor", "LogisticClassifier", "MultinomialClassifier", "LADRegressor", "RidgeRegressor", "RobustRegressor", "ElasticNetRegressor", "LinearRegressor", "LassoRegressor", "HuberRegressor"]
ScikitLearn = ["ProbabilisticSGDClassifier", "RidgeCVClassifier", "LogisticClassifier", "RandomForestRegressor", "ElasticNetCVRegressor", "PerceptronClassifier", "MultiTaskLassoRegressor", "LinearRegressor", "DBSCAN", "RidgeRegressor", "LassoLarsICRegressor", "ARDRegressor", "SVMNuRegressor", "RidgeClassifier", "SGDRegressor", "ComplementNBClassifier", "HuberRegressor", "SVMNuClassifier", "GradientBoostingClassifier", "GaussianProcessRegressor", "SVMLinearRegressor", "LarsRegressor", "MeanShift", "AdaBoostRegressor", "AffinityPropagation", "MultiTaskLassoCVRegressor", "OrthogonalMatchingPursuitRegressor", "RidgeCVRegressor", "PassiveAggressiveClassifier", "SVMRegressor", "BernoulliNBClassifier", "GaussianNBClassifier", "ExtraTreesClassifier", "KMeans", "MultiTaskElasticNetCVRegressor", "LassoLarsCVRegressor", "OrthogonalMatchingPursuitCVRegressor", "AdaBoostClassifier", "PassiveAggressiveRegressor", "BayesianRidgeRegressor", "RANSACRegressor", "BaggingClassifier", "GaussianProcessClassifier", "OPTICS", "KNeighborsRegressor", "MiniBatchKMeans", "LassoCVRegressor", "DummyRegressor", "LassoLarsRegressor", "LarsCVRegressor", "KNeighborsClassifier", "SVMLinearClassifier", "FeatureAgglomeration", "DummyClassifier", "BaggingRegressor", "BayesianQDA", "BayesianLDA", "SGDClassifier", "TheilSenRegressor", "SpectralClustering", "Birch", "AgglomerativeClustering", "ElasticNetRegressor", "RandomForestClassifier", "LogisticCVClassifier", "MultiTaskElasticNetRegressor", "ExtraTreesRegressor", "LassoRegressor", "MultinomialNBClassifier", "GradientBoostingRegressor", "SVMClassifier"]
ParallelKMeans = ["KMeans"]
NaiveBayes = ["GaussianNBClassifier", "MultinomialNBClassifier"]
MultivariateStats = ["LDA", "MultitargetLinearRegressor", "BayesianSubspaceLDA", "FactorAnalysis", "LinearRegressor", "ICA", "PPCA", "RidgeRegressor", "KernelPCA", "MultitargetRidgeRegressor", "SubspaceLDA", "BayesianLDA", "PCA"]
DecisionTree = ["AdaBoostStumpClassifier", "DecisionTreeRegressor", "DecisionTreeClassifier", "RandomForestRegressor", "RandomForestClassifier"]
Clustering = ["HierarchicalClustering", "DBSCAN", "KMeans", "KMedoids"]
EvoLinear = ["EvoLinearRegressor"]
XGBoost = ["XGBoostCount", "XGBoostRegressor", "XGBoostClassifier"]
LightGBM = ["LGBMClassifier", "LGBMRegressor"]
MLJText = ["TfidfTransformer", "CountTransformer", "BM25Transformer"]
OutlierDetectionNetworks = ["AEDetector", "DSADDetector", "ESADDetector"]
EvoTrees = ["EvoTreeClassifier", "EvoTreeGaussian", "EvoTreeRegressor", "EvoTreeCount"]
MLJModels = ["ConstantClassifier", "Standardizer", "DeterministicConstantClassifier", "UnivariateTimeTypeToContinuous", "OneHotEncoder", "ContinuousEncoder", "UnivariateBoxCoxTransformer", "InteractionTransformer", "ConstantRegressor", "FeatureSelector", "UnivariateDiscretizer", "FillImputer", "DeterministicConstantRegressor", "UnivariateStandardizer", "UnivariateFillImputer"]
OutlierDetectionPython = ["MCDDetector", "COPODDetector", "HBOSDetector", "IForestDetector", "SOSDetector", "ABODDetector", "LOFDetector", "PCADetector", "OCSVMDetector", "SODDetector", "LODADetector", "KNNDetector", "COFDetector", "CBLOFDetector", "LOCIDetector", "LMDDDetector", "RODDetector"]
OneRule = ["OneRuleClassifier"]
LIBSVM = ["EpsilonSVR", "LinearSVC", "NuSVR", "NuSVC", "SVC", "OneClassSVM"]
TSVD = ["TSVDTransformer"]
GLM = ["LinearBinaryClassifier", "LinearCountRegressor", "LinearRegressor"]
MLJFlux = ["MultitargetNeuralNetworkRegressor", "NeuralNetworkClassifier", "ImageClassifier", "NeuralNetworkRegressor"]
