BetaML = ["RandomForestRegressor", "GaussianMixtureImputer", "RandomForestClassifier", "RandomForestImputer", "PerceptronClassifier", "AutoEncoder", "DecisionTreeRegressor", "PegasosClassifier", "NeuralNetworkRegressor", "KMeansClusterer", "MultitargetGaussianMixtureRegressor", "GaussianMixtureRegressor", "MultitargetNeuralNetworkRegressor", "DecisionTreeClassifier", "GeneralImputer", "NeuralNetworkClassifier", "SimpleImputer", "GaussianMixtureClusterer", "KernelPerceptronClassifier", "KMedoidsClusterer"]
CatBoost = ["CatBoostRegressor", "CatBoostClassifier"]
NearestNeighborModels = ["KNNClassifier", "MultitargetKNNClassifier", "MultitargetKNNRegressor", "KNNRegressor"]
MLJScikitLearnInterface = ["ProbabilisticSGDClassifier", "RidgeCVClassifier", "LogisticClassifier", "RandomForestRegressor", "ElasticNetCVRegressor", "PerceptronClassifier", "MultiTaskLassoRegressor", "LinearRegressor", "HDBSCAN", "DBSCAN", "RidgeRegressor", "LassoLarsICRegressor", "ARDRegressor", "SVMNuRegressor", "RidgeClassifier", "SGDRegressor", "ComplementNBClassifier", "HuberRegressor", "SVMNuClassifier", "GradientBoostingClassifier", "GaussianProcessRegressor", "SVMLinearRegressor", "LarsRegressor", "MeanShift", "HistGradientBoostingClassifier", "AdaBoostRegressor", "AffinityPropagation", "MultiTaskLassoCVRegressor", "OrthogonalMatchingPursuitRegressor", "RidgeCVRegressor", "PassiveAggressiveClassifier", "SVMRegressor", "BernoulliNBClassifier", "GaussianNBClassifier", "ExtraTreesClassifier", "KMeans", "MultiTaskElasticNetCVRegressor", "LassoLarsCVRegressor", "OrthogonalMatchingPursuitCVRegressor", "AdaBoostClassifier", "PassiveAggressiveRegressor", "BayesianRidgeRegressor", "RANSACRegressor", "BaggingClassifier", "GaussianProcessClassifier", "OPTICS", "KNeighborsRegressor", "HistGradientBoostingRegressor", "MiniBatchKMeans", "LassoCVRegressor", "DummyRegressor", "BisectingKMeans", "LassoLarsRegressor", "LarsCVRegressor", "KNeighborsClassifier", "SVMLinearClassifier", "FeatureAgglomeration", "DummyClassifier", "BaggingRegressor", "BayesianQDA", "BayesianLDA", "SGDClassifier", "TheilSenRegressor", "SpectralClustering", "Birch", "AgglomerativeClustering", "ElasticNetRegressor", "RandomForestClassifier", "LogisticCVClassifier", "MultiTaskElasticNetRegressor", "ExtraTreesRegressor", "LassoRegressor", "MultinomialNBClassifier", "GradientBoostingRegressor", "SVMClassifier"]
OutlierDetectionNeighbors = ["ABODDetector", "DNNDetector", "LOFDetector", "KNNDetector", "COFDetector"]
SIRUS = ["StableRulesClassifier", "StableRulesRegressor", "StableForestClassifier", "StableForestRegressor"]
PartialLeastSquaresRegressor = ["KPLSRegressor", "PLSRegressor"]
PartitionedLS = ["PartLS"]
MLJLinearModels = ["QuantileRegressor", "LogisticClassifier", "MultinomialClassifier", "LADRegressor", "RidgeRegressor", "RobustRegressor", "ElasticNetRegressor", "LinearRegressor", "LassoRegressor", "HuberRegressor"]
ParallelKMeans = ["KMeans"]
NaiveBayes = ["GaussianNBClassifier", "MultinomialNBClassifier"]
MultivariateStats = ["LDA", "MultitargetLinearRegressor", "BayesianSubspaceLDA", "FactorAnalysis", "LinearRegressor", "ICA", "PPCA", "RidgeRegressor", "KernelPCA", "MultitargetRidgeRegressor", "SubspaceLDA", "BayesianLDA", "PCA"]
DecisionTree = ["AdaBoostStumpClassifier", "DecisionTreeRegressor", "DecisionTreeClassifier", "RandomForestRegressor", "RandomForestClassifier"]
Imbalance = ["RandomOversampler", "SMOTENC", "TomekUndersampler", "ClusterUndersampler", "SMOTE", "SMOTEN", "ROSE", "RandomUndersampler", "ENNUndersampler", "BorderlineSMOTE1", "RandomWalkOversampler"]
Clustering = ["HierarchicalClustering", "DBSCAN", "KMeans", "KMedoids"]
EvoLinear = ["EvoSplineRegressor", "EvoLinearRegressor"]
XGBoost = ["XGBoostCount", "XGBoostRegressor", "XGBoostClassifier"]
LightGBM = ["LGBMClassifier", "LGBMRegressor"]
SymbolicRegression = ["MultitargetSRRegressor", "SRRegressor"]
MLJText = ["TfidfTransformer", "CountTransformer", "BM25Transformer"]
EvoTrees = ["EvoTreeClassifier", "EvoTreeGaussian", "EvoTreeMLE", "EvoTreeRegressor", "EvoTreeCount"]
MLJModels = ["ConstantClassifier", "Standardizer", "DeterministicConstantClassifier", "UnivariateTimeTypeToContinuous", "OneHotEncoder", "ContinuousEncoder", "UnivariateBoxCoxTransformer", "InteractionTransformer", "ConstantRegressor", "FeatureSelector", "UnivariateDiscretizer", "FillImputer", "DeterministicConstantRegressor", "UnivariateStandardizer", "UnivariateFillImputer"]
OutlierDetectionPython = ["MCDDetector", "COPODDetector", "HBOSDetector", "IForestDetector", "SOSDetector", "ABODDetector", "LOFDetector", "PCADetector", "INNEDetector", "OCSVMDetector", "ECODDetector", "SODDetector", "LODADetector", "KDEDetector", "CDDetector", "KNNDetector", "GMMDetector", "COFDetector", "CBLOFDetector", "LOCIDetector", "LMDDDetector", "RODDetector"]
OneRule = ["OneRuleClassifier"]
SelfOrganizingMaps = ["SelfOrganizingMap"]
LIBSVM = ["ProbabilisticNuSVC", "EpsilonSVR", "LinearSVC", "ProbabilisticSVC", "NuSVR", "NuSVC", "SVC", "OneClassSVM"]
TSVD = ["TSVDTransformer"]
GLM = ["LinearBinaryClassifier", "LinearCountRegressor", "LinearRegressor"]
MLJFlux = ["MultitargetNeuralNetworkRegressor", "NeuralNetworkClassifier", "ImageClassifier", "NeuralNetworkRegressor"]
